{"w": [[-0.5676655497844947], [-0.7234730122541818], [-1.0360070779301924], [-0.041981732449436496], [-0.5352406406049124], [-0.22492221104544868], [-0.11018215715789195], [-0.024559571446649803], [-0.055587760240737374], [1.189123687394547], [-1.015126309326475], [-0.14426384452483385], [-0.397040457835331], [-0.32570804697485706], [-0.1314538891217445], [-1.4757614122184866], [-0.4219518610307021], [-0.19145976918838306], [-0.5898419866958016], [-0.34977894087576644]], "b": -0.22347003048245256, "scalars": [{"type": "standardizer", "_mean_values": [2.1612810457516334, 15.261647058823527, 0.22032156862745045, 2.1253267973856227, 0.03199215686274518, 3.917267973856206, 0.41362091503267867, 0.9535947712418302, 0.7709019607843123, 0.2307581699346406, 0.2520771241830057, 0.0998653594771242, 9.56632026143791, 1.5188888888888887, 0.005141830065359447, 28.21220261437906, 3.7743137254901904, 0.04852941176470611, 0.22243137254901998, 0.0429019607843138], "_std_values": [1.530161444160807, 8.607369097313853, 0.29874624048088233, 1.22115318010555, 0.038741694500028824, 2.365224357544829, 0.2697298819852262, 0.6053099615198348, 0.43327673483629775, 0.31652248577609654, 0.3600132975933239, 0.05689644454042247, 5.596133923602674, 0.40941813574455094, 0.0029897671752114685, 17.222832688094147, 2.2990460552849776, 0.028523481628811458, 0.150796480806438, 0.026967849341690327]}]}